FANN_FLO_2.1
num_layers=3
learning_rate=0.700000
connection_rate=1.000000
network_type=0
learning_momentum=0.000000
training_algorithm=2
train_error_function=1
train_stop_function=0
cascade_output_change_fraction=0.010000
quickprop_decay=-0.000100
quickprop_mu=1.750000
rprop_increase_factor=1.200000
rprop_decrease_factor=0.500000
rprop_delta_min=0.000000
rprop_delta_max=50.000000
rprop_delta_zero=0.100000
cascade_output_stagnation_epochs=12
cascade_candidate_change_fraction=0.010000
cascade_candidate_stagnation_epochs=12
cascade_max_out_epochs=150
cascade_min_out_epochs=50
cascade_max_cand_epochs=150
cascade_min_cand_epochs=50
cascade_num_candidate_groups=2
bit_fail_limit=3.49999994039535522461e-01
cascade_candidate_limit=1.00000000000000000000e+03
cascade_weight_multiplier=4.00000005960464477539e-01
cascade_activation_functions_count=10
cascade_activation_functions=3 5 7 8 10 11 14 15 16 17 
cascade_activation_steepnesses_count=4
cascade_activation_steepnesses=2.50000000000000000000e-01 5.00000000000000000000e-01 7.50000000000000000000e-01 1.00000000000000000000e+00 
layer_sizes=4 11 4 
scale_included=0
neurons (num_inputs, activation_function, activation_steepness)=(0, 0, 0.00000000000000000000e+00) (0, 0, 0.00000000000000000000e+00) (0, 0, 0.00000000000000000000e+00) (0, 0, 0.00000000000000000000e+00) (4, 5, 5.00000000000000000000e-01) (4, 5, 5.00000000000000000000e-01) (4, 5, 5.00000000000000000000e-01) (4, 5, 5.00000000000000000000e-01) (4, 5, 5.00000000000000000000e-01) (4, 5, 5.00000000000000000000e-01) (4, 5, 5.00000000000000000000e-01) (4, 5, 5.00000000000000000000e-01) (4, 5, 5.00000000000000000000e-01) (4, 5, 5.00000000000000000000e-01) (0, 5, 0.00000000000000000000e+00) (11, 5, 5.00000000000000000000e-01) (11, 5, 5.00000000000000000000e-01) (11, 5, 5.00000000000000000000e-01) (0, 5, 0.00000000000000000000e+00) 
connections (connected_to_neuron, weight)=(0, 1.66465789794921875000e+02) (1, -5.02205314636230468750e+01) (2, 7.35890045166015625000e+01) (3, -4.48660945892333984375e+00) (0, 1.04661142826080322266e+00) (1, 1.29897189140319824219e+00) (2, 9.83317852020263671875e-01) (3, 2.06774568557739257812e+00) (0, 3.93772274255752563477e-01) (1, 1.54601192474365234375e+00) (2, 1.08819901943206787109e+00) (3, 1.30378818511962890625e+00) (0, 3.70217800140380859375e-01) (1, 1.05765677988529205322e-01) (2, 5.36768138408660888672e-01) (3, -7.68561586737632751465e-02) (0, -4.73023615777492523193e-02) (1, -7.70715847611427307129e-02) (2, -6.28099858760833740234e-01) (3, -4.33281809091567993164e-01) (0, 1.71217322349548339844e-01) (1, 6.65367603302001953125e-01) (2, 3.62821966409683227539e-01) (3, 5.54987490177154541016e-01) (0, 1.54020805358886718750e+01) (1, -1.75469894409179687500e+01) (2, 7.92560482025146484375e+00) (3, 5.95528173446655273438e+00) (0, 5.65873324871063232422e-01) (1, 1.25975191593170166016e+00) (2, 4.46263521909713745117e-01) (3, 1.40192532539367675781e+00) (0, -5.96130013465881347656e-01) (1, -4.32806462049484252930e-01) (2, -2.14375704526901245117e-01) (3, -7.78078794479370117188e-01) (0, 1.03626430034637451172e+00) (1, -4.06543374061584472656e-01) (2, 1.50275731086730957031e+00) (3, 2.65730881690979003906e+00) (4, -3.84851582348346710205e-02) (5, 1.64091765880584716797e+00) (6, 2.68281483650207519531e+00) (7, 2.53527507781982421875e+01) (8, 2.41880455017089843750e+01) (9, 3.04452109336853027344e+00) (10, 3.26346540451049804688e+00) (11, 4.59251308441162109375e+00) (12, 2.41358489990234375000e+01) (13, 2.50576257705688476562e+00) (14, 3.51429772377014160156e+00) (4, -2.64691393822431564331e-02) (5, 3.38804912567138671875e+00) (6, 3.40753006935119628906e+00) (7, 2.45827713012695312500e+01) (8, 2.47288112640380859375e+01) (9, 3.06870198249816894531e+00) (10, 2.09734320640563964844e+00) (11, 2.86924195289611816406e+00) (12, 2.43651084899902343750e+01) (13, 3.18019413948059082031e+00) (14, 3.39871931076049804688e+00) (4, -5.11371195316314697266e-02) (5, 3.93319368362426757812e+00) (6, 2.70056986808776855469e+00) (7, 2.42475261688232421875e+01) (8, 2.41005916595458984375e+01) (9, 3.16336822509765625000e+00) (10, 2.18900036811828613281e+00) (11, 2.81044793128967285156e+00) (12, 2.40764083862304687500e+01) (13, 2.74252796173095703125e+00) (14, 3.54463291168212890625e+00) 
